#pragma once
#include <cstdarg>
namespace Eloquent {
    namespace ML {
        namespace Port {
            class RandomForest {
                public:
                    /**
                    * Predict class for features vector
                    */
                    int predict(float *x) {
                        uint8_t votes[2] = { 0 };
                        // tree #1
                        if (x[0] <= 681.8073425292969) {
                            if (x[1] <= 34.89121437072754) {
                                votes[1] += 1;
                            }

                            else {
                                if (x[2] <= 44.45821762084961) {
                                    if (x[2] <= 44.33450126647949) {
                                        votes[1] += 1;
                                    }

                                    else {
                                        votes[0] += 1;
                                    }
                                }

                                else {
                                    votes[1] += 1;
                                }
                            }
                        }

                        else {
                            votes[0] += 1;
                        }

                        // tree #2
                        if (x[2] <= 38.432024002075195) {
                            if (x[2] <= 38.02525329589844) {
                                votes[1] += 1;
                            }

                            else {
                                if (x[2] <= 38.22780418395996) {
                                    votes[0] += 1;
                                }

                                else {
                                    if (x[2] <= 38.26691818237305) {
                                        votes[1] += 1;
                                    }

                                    else {
                                        if (x[1] <= 20.79488182067871) {
                                            votes[1] += 1;
                                        }

                                        else {
                                            votes[0] += 1;
                                        }
                                    }
                                }
                            }
                        }

                        else {
                            if (x[0] <= 682.0504455566406) {
                                votes[1] += 1;
                            }

                            else {
                                votes[0] += 1;
                            }
                        }

                        // tree #3
                        if (x[1] <= 29.751760482788086) {
                            if (x[1] <= 29.3792667388916) {
                                if (x[1] <= 29.097238540649414) {
                                    if (x[0] <= 682.5552368164062) {
                                        votes[1] += 1;
                                    }

                                    else {
                                        votes[0] += 1;
                                    }
                                }

                                else {
                                    if (x[2] <= 79.13561630249023) {
                                        if (x[2] <= 53.20382499694824) {
                                            votes[0] += 1;
                                        }

                                        else {
                                            if (x[2] <= 56.970537185668945) {
                                                votes[1] += 1;
                                            }

                                            else {
                                                votes[0] += 1;
                                            }
                                        }
                                    }

                                    else {
                                        votes[1] += 1;
                                    }
                                }
                            }

                            else {
                                if (x[1] <= 29.712559700012207) {
                                    if (x[0] <= 664.5515441894531) {
                                        votes[1] += 1;
                                    }

                                    else {
                                        votes[0] += 1;
                                    }
                                }

                                else {
                                    if (x[1] <= 29.72318744659424) {
                                        votes[0] += 1;
                                    }

                                    else {
                                        votes[1] += 1;
                                    }
                                }
                            }
                        }

                        else {
                            if (x[2] <= 38.467233657836914) {
                                votes[0] += 1;
                            }

                            else {
                                if (x[0] <= 681.5479125976562) {
                                    if (x[1] <= 34.88931083679199) {
                                        votes[1] += 1;
                                    }

                                    else {
                                        if (x[0] <= 462.7545928955078) {
                                            if (x[1] <= 34.92976951599121) {
                                                votes[0] += 1;
                                            }

                                            else {
                                                votes[1] += 1;
                                            }
                                        }

                                        else {
                                            votes[1] += 1;
                                        }
                                    }
                                }

                                else {
                                    votes[0] += 1;
                                }
                            }
                        }

                        // tree #4
                        if (x[2] <= 45.24108123779297) {
                            if (x[1] <= 29.095568656921387) {
                                if (x[0] <= 687.6794128417969) {
                                    votes[1] += 1;
                                }

                                else {
                                    votes[0] += 1;
                                }
                            }

                            else {
                                if (x[0] <= 683.7836608886719) {
                                    if (x[1] <= 34.83335876464844) {
                                        votes[1] += 1;
                                    }

                                    else {
                                        if (x[0] <= 468.5548553466797) {
                                            if (x[1] <= 35.31989097595215) {
                                                votes[0] += 1;
                                            }

                                            else {
                                                votes[1] += 1;
                                            }
                                        }

                                        else {
                                            votes[1] += 1;
                                        }
                                    }
                                }

                                else {
                                    votes[0] += 1;
                                }
                            }
                        }

                        else {
                            if (x[2] <= 55.695547103881836) {
                                if (x[0] <= 681.7316284179688) {
                                    votes[1] += 1;
                                }

                                else {
                                    votes[0] += 1;
                                }
                            }

                            else {
                                if (x[1] <= 36.42935562133789) {
                                    if (x[2] <= 55.988779067993164) {
                                        if (x[2] <= 55.843448638916016) {
                                            if (x[0] <= 728.5739440917969) {
                                                votes[1] += 1;
                                            }

                                            else {
                                                votes[0] += 1;
                                            }
                                        }

                                        else {
                                            votes[1] += 1;
                                        }
                                    }

                                    else {
                                        if (x[1] <= 32.40522384643555) {
                                            if (x[2] <= 79.64720916748047) {
                                                if (x[1] <= 30.62550640106201) {
                                                    votes[1] += 1;
                                                }

                                                else {
                                                    votes[1] += 1;
                                                }
                                            }

                                            else {
                                                if (x[1] <= 32.02574157714844) {
                                                    votes[0] += 1;
                                                }

                                                else {
                                                    votes[1] += 1;
                                                }
                                            }
                                        }

                                        else {
                                            if (x[0] <= 683.3579406738281) {
                                                votes[1] += 1;
                                            }

                                            else {
                                                votes[0] += 1;
                                            }
                                        }
                                    }
                                }

                                else {
                                    if (x[0] <= 688.6068420410156) {
                                        votes[1] += 1;
                                    }

                                    else {
                                        votes[0] += 1;
                                    }
                                }
                            }
                        }

                        // tree #5
                        if (x[2] <= 79.90730285644531) {
                            if (x[1] <= 37.46395492553711) {
                                if (x[0] <= 682.0504455566406) {
                                    votes[1] += 1;
                                }

                                else {
                                    votes[0] += 1;
                                }
                            }

                            else {
                                if (x[0] <= 687.2783203125) {
                                    votes[1] += 1;
                                }

                                else {
                                    votes[0] += 1;
                                }
                            }
                        }

                        else {
                            if (x[0] <= 674.6184387207031) {
                                votes[1] += 1;
                            }

                            else {
                                votes[0] += 1;
                            }
                        }

                        // tree #6
                        if (x[1] <= 18.463215827941895) {
                            if (x[1] <= 18.42746353149414) {
                                if (x[1] <= 18.05802059173584) {
                                    if (x[1] <= 18.00550937652588) {
                                        votes[1] += 1;
                                    }

                                    else {
                                        votes[0] += 1;
                                    }
                                }

                                else {
                                    if (x[1] <= 18.176514625549316) {
                                        if (x[2] <= 60.66223907470703) {
                                            votes[1] += 1;
                                        }

                                        else {
                                            if (x[1] <= 18.11833381652832) {
                                                votes[0] += 1;
                                            }

                                            else {
                                                votes[1] += 1;
                                            }
                                        }
                                    }

                                    else {
                                        if (x[0] <= 671.8171081542969) {
                                            votes[1] += 1;
                                        }

                                        else {
                                            votes[0] += 1;
                                        }
                                    }
                                }
                            }

                            else {
                                votes[0] += 1;
                            }
                        }

                        else {
                            if (x[2] <= 38.38251876831055) {
                                if (x[1] <= 23.59192943572998) {
                                    if (x[0] <= 741.1355895996094) {
                                        votes[1] += 1;
                                    }

                                    else {
                                        votes[0] += 1;
                                    }
                                }

                                else {
                                    votes[0] += 1;
                                }
                            }

                            else {
                                if (x[0] <= 682.0504455566406) {
                                    if (x[0] <= 462.74595642089844) {
                                        if (x[0] <= 462.03025817871094) {
                                            votes[1] += 1;
                                        }

                                        else {
                                            votes[0] += 1;
                                        }
                                    }

                                    else {
                                        votes[1] += 1;
                                    }
                                }

                                else {
                                    votes[0] += 1;
                                }
                            }
                        }

                        // tree #7
                        if (x[1] <= 18.659820556640625) {
                            if (x[2] <= 52.992692947387695) {
                                if (x[2] <= 39.137678146362305) {
                                    votes[0] += 1;
                                }

                                else {
                                    if (x[1] <= 18.05802059173584) {
                                        votes[0] += 1;
                                    }

                                    else {
                                        if (x[2] <= 47.610219955444336) {
                                            if (x[1] <= 18.367116928100586) {
                                                votes[1] += 1;
                                            }

                                            else {
                                                if (x[1] <= 18.463215827941895) {
                                                    votes[0] += 1;
                                                }

                                                else {
                                                    votes[1] += 1;
                                                }
                                            }
                                        }

                                        else {
                                            votes[1] += 1;
                                        }
                                    }
                                }
                            }

                            else {
                                if (x[2] <= 66.26473236083984) {
                                    if (x[0] <= 728.5313415527344) {
                                        votes[1] += 1;
                                    }

                                    else {
                                        votes[0] += 1;
                                    }
                                }

                                else {
                                    if (x[0] <= 721.0997619628906) {
                                        votes[1] += 1;
                                    }

                                    else {
                                        votes[0] += 1;
                                    }
                                }
                            }
                        }

                        else {
                            if (x[0] <= 682.5552368164062) {
                                if (x[0] <= 462.74522399902344) {
                                    if (x[1] <= 34.87551307678223) {
                                        votes[1] += 1;
                                    }

                                    else {
                                        if (x[0] <= 459.67308044433594) {
                                            votes[1] += 1;
                                        }

                                        else {
                                            votes[0] += 1;
                                        }
                                    }
                                }

                                else {
                                    votes[1] += 1;
                                }
                            }

                            else {
                                votes[0] += 1;
                            }
                        }

                        // tree #8
                        if (x[0] <= 682.0504455566406) {
                            if (x[1] <= 34.88931083679199) {
                                votes[1] += 1;
                            }

                            else {
                                if (x[2] <= 44.45821762084961) {
                                    if (x[1] <= 34.91188621520996) {
                                        votes[0] += 1;
                                    }

                                    else {
                                        votes[1] += 1;
                                    }
                                }

                                else {
                                    votes[1] += 1;
                                }
                            }
                        }

                        else {
                            votes[0] += 1;
                        }

                        // tree #9
                        if (x[2] <= 38.50187301635742) {
                            if (x[1] <= 30.23251438140869) {
                                if (x[0] <= 715.0144958496094) {
                                    votes[1] += 1;
                                }

                                else {
                                    votes[0] += 1;
                                }
                            }

                            else {
                                votes[0] += 1;
                            }
                        }

                        else {
                            if (x[0] <= 681.8073425292969) {
                                if (x[1] <= 34.88931083679199) {
                                    votes[1] += 1;
                                }

                                else {
                                    if (x[1] <= 34.91188621520996) {
                                        votes[0] += 1;
                                    }

                                    else {
                                        votes[1] += 1;
                                    }
                                }
                            }

                            else {
                                votes[0] += 1;
                            }
                        }

                        // tree #10
                        if (x[0] <= 683.3670654296875) {
                            if (x[1] <= 34.89121437072754) {
                                votes[1] += 1;
                            }

                            else {
                                if (x[0] <= 462.7545928955078) {
                                    if (x[0] <= 459.64378356933594) {
                                        votes[1] += 1;
                                    }

                                    else {
                                        votes[0] += 1;
                                    }
                                }

                                else {
                                    votes[1] += 1;
                                }
                            }
                        }

                        else {
                            votes[0] += 1;
                        }

                        // tree #11
                        if (x[0] <= 682.0504455566406) {
                            votes[1] += 1;
                        }

                        else {
                            votes[0] += 1;
                        }

                        // tree #12
                        if (x[2] <= 79.99647903442383) {
                            if (x[1] <= 18.23212718963623) {
                                if (x[0] <= 653.3085632324219) {
                                    votes[1] += 1;
                                }

                                else {
                                    votes[0] += 1;
                                }
                            }

                            else {
                                if (x[1] <= 18.42004680633545) {
                                    if (x[2] <= 62.22560119628906) {
                                        if (x[2] <= 42.773054122924805) {
                                            if (x[2] <= 40.78139686584473) {
                                                votes[0] += 1;
                                            }

                                            else {
                                                votes[1] += 1;
                                            }
                                        }

                                        else {
                                            votes[0] += 1;
                                        }
                                    }

                                    else {
                                        if (x[2] <= 64.01072311401367) {
                                            votes[1] += 1;
                                        }

                                        else {
                                            if (x[0] <= 695.9068603515625) {
                                                votes[1] += 1;
                                            }

                                            else {
                                                votes[0] += 1;
                                            }
                                        }
                                    }
                                }

                                else {
                                    if (x[2] <= 58.628976821899414) {
                                        if (x[1] <= 23.589351654052734) {
                                            if (x[2] <= 42.670169830322266) {
                                                if (x[2] <= 41.71926307678223) {
                                                    votes[1] += 1;
                                                }

                                                else {
                                                    votes[1] += 1;
                                                }
                                            }

                                            else {
                                                if (x[2] <= 46.535505294799805) {
                                                    votes[0] += 1;
                                                }

                                                else {
                                                    votes[1] += 1;
                                                }
                                            }
                                        }

                                        else {
                                            if (x[0] <= 681.7316284179688) {
                                                votes[1] += 1;
                                            }

                                            else {
                                                votes[0] += 1;
                                            }
                                        }
                                    }

                                    else {
                                        if (x[1] <= 32.73354721069336) {
                                            if (x[1] <= 27.814176559448242) {
                                                if (x[2] <= 60.914451599121094) {
                                                    votes[1] += 1;
                                                }

                                                else {
                                                    votes[1] += 1;
                                                }
                                            }

                                            else {
                                                if (x[2] <= 77.01274490356445) {
                                                    votes[1] += 1;
                                                }

                                                else {
                                                    votes[0] += 1;
                                                }
                                            }
                                        }

                                        else {
                                            if (x[0] <= 680.5748596191406) {
                                                votes[1] += 1;
                                            }

                                            else {
                                                votes[0] += 1;
                                            }
                                        }
                                    }
                                }
                            }
                        }

                        else {
                            if (x[1] <= 23.639451026916504) {
                                if (x[1] <= 21.970044136047363) {
                                    if (x[1] <= 21.134005546569824) {
                                        if (x[2] <= 80.89950942993164) {
                                            votes[0] += 1;
                                        }

                                        else {
                                            if (x[2] <= 81.07256317138672) {
                                                votes[1] += 1;
                                            }

                                            else {
                                                votes[0] += 1;
                                            }
                                        }
                                    }

                                    else {
                                        votes[0] += 1;
                                    }
                                }

                                else {
                                    if (x[1] <= 23.19862174987793) {
                                        if (x[2] <= 81.06840515136719) {
                                            votes[1] += 1;
                                        }

                                        else {
                                            votes[0] += 1;
                                        }
                                    }

                                    else {
                                        votes[1] += 1;
                                    }
                                }
                            }

                            else {
                                if (x[1] <= 28.17322826385498) {
                                    votes[0] += 1;
                                }

                                else {
                                    if (x[2] <= 80.84156799316406) {
                                        if (x[0] <= 638.2622375488281) {
                                            votes[1] += 1;
                                        }

                                        else {
                                            votes[0] += 1;
                                        }
                                    }

                                    else {
                                        votes[0] += 1;
                                    }
                                }
                            }
                        }

                        // tree #13
                        if (x[2] <= 79.90730285644531) {
                            if (x[0] <= 682.0504455566406) {
                                if (x[0] <= 462.74522399902344) {
                                    if (x[1] <= 34.89121437072754) {
                                        votes[1] += 1;
                                    }

                                    else {
                                        if (x[1] <= 34.91188621520996) {
                                            votes[0] += 1;
                                        }

                                        else {
                                            votes[1] += 1;
                                        }
                                    }
                                }

                                else {
                                    votes[1] += 1;
                                }
                            }

                            else {
                                votes[0] += 1;
                            }
                        }

                        else {
                            if (x[1] <= 33.6096305847168) {
                                if (x[1] <= 28.17322826385498) {
                                    if (x[2] <= 80.74177551269531) {
                                        votes[0] += 1;
                                    }

                                    else {
                                        if (x[0] <= 693.1678161621094) {
                                            votes[1] += 1;
                                        }

                                        else {
                                            votes[0] += 1;
                                        }
                                    }
                                }

                                else {
                                    if (x[2] <= 80.0608901977539) {
                                        votes[0] += 1;
                                    }

                                    else {
                                        if (x[0] <= 639.3957824707031) {
                                            votes[1] += 1;
                                        }

                                        else {
                                            votes[0] += 1;
                                        }
                                    }
                                }
                            }

                            else {
                                if (x[2] <= 80.09969711303711) {
                                    votes[1] += 1;
                                }

                                else {
                                    if (x[1] <= 38.04119682312012) {
                                        votes[0] += 1;
                                    }

                                    else {
                                        if (x[1] <= 38.376333236694336) {
                                            votes[1] += 1;
                                        }

                                        else {
                                            votes[0] += 1;
                                        }
                                    }
                                }
                            }
                        }

                        // tree #14
                        if (x[2] <= 79.90730285644531) {
                            if (x[0] <= 682.0504455566406) {
                                votes[1] += 1;
                            }

                            else {
                                votes[0] += 1;
                            }
                        }

                        else {
                            if (x[1] <= 28.37818145751953) {
                                if (x[0] <= 678.4080200195312) {
                                    votes[1] += 1;
                                }

                                else {
                                    votes[0] += 1;
                                }
                            }

                            else {
                                if (x[1] <= 29.748826026916504) {
                                    if (x[2] <= 80.88763046264648) {
                                        votes[1] += 1;
                                    }

                                    else {
                                        votes[0] += 1;
                                    }
                                }

                                else {
                                    if (x[0] <= 683.6525573730469) {
                                        votes[1] += 1;
                                    }

                                    else {
                                        votes[0] += 1;
                                    }
                                }
                            }
                        }

                        // tree #15
                        if (x[1] <= 38.98320770263672) {
                            if (x[1] <= 38.85782432556152) {
                                if (x[0] <= 682.0504455566406) {
                                    votes[1] += 1;
                                }

                                else {
                                    votes[0] += 1;
                                }
                            }

                            else {
                                if (x[1] <= 38.929908752441406) {
                                    votes[0] += 1;
                                }

                                else {
                                    if (x[1] <= 38.949602127075195) {
                                        votes[1] += 1;
                                    }

                                    else {
                                        votes[0] += 1;
                                    }
                                }
                            }
                        }

                        else {
                            votes[1] += 1;
                        }

                        // tree #16
                        if (x[1] <= 21.970683097839355) {
                            if (x[2] <= 52.137779235839844) {
                                if (x[0] <= 682.24755859375) {
                                    votes[1] += 1;
                                }

                                else {
                                    votes[0] += 1;
                                }
                            }

                            else {
                                if (x[2] <= 60.09498977661133) {
                                    if (x[0] <= 668.9309387207031) {
                                        votes[1] += 1;
                                    }

                                    else {
                                        votes[0] += 1;
                                    }
                                }

                                else {
                                    if (x[2] <= 71.83822631835938) {
                                        if (x[2] <= 64.12783813476562) {
                                            if (x[0] <= 676.2307739257812) {
                                                votes[1] += 1;
                                            }

                                            else {
                                                votes[0] += 1;
                                            }
                                        }

                                        else {
                                            if (x[1] <= 19.567519187927246) {
                                                if (x[1] <= 18.027255058288574) {
                                                    votes[0] += 1;
                                                }

                                                else {
                                                    votes[1] += 1;
                                                }
                                            }

                                            else {
                                                if (x[0] <= 684.3470458984375) {
                                                    votes[1] += 1;
                                                }

                                                else {
                                                    votes[0] += 1;
                                                }
                                            }
                                        }
                                    }

                                    else {
                                        if (x[1] <= 21.763386726379395) {
                                            if (x[0] <= 686.0893859863281) {
                                                votes[1] += 1;
                                            }

                                            else {
                                                votes[0] += 1;
                                            }
                                        }

                                        else {
                                            votes[0] += 1;
                                        }
                                    }
                                }
                            }
                        }

                        else {
                            if (x[0] <= 681.7316284179688) {
                                if (x[1] <= 34.88931083679199) {
                                    votes[1] += 1;
                                }

                                else {
                                    if (x[0] <= 462.7545928955078) {
                                        if (x[1] <= 34.91188621520996) {
                                            votes[0] += 1;
                                        }

                                        else {
                                            votes[1] += 1;
                                        }
                                    }

                                    else {
                                        votes[1] += 1;
                                    }
                                }
                            }

                            else {
                                votes[0] += 1;
                            }
                        }

                        // tree #17
                        if (x[0] <= 682.0504455566406) {
                            if (x[2] <= 44.373186111450195) {
                                if (x[2] <= 44.348419189453125) {
                                    votes[1] += 1;
                                }

                                else {
                                    votes[0] += 1;
                                }
                            }

                            else {
                                votes[1] += 1;
                            }
                        }

                        else {
                            votes[0] += 1;
                        }

                        // tree #18
                        if (x[0] <= 683.3670654296875) {
                            if (x[1] <= 34.89121437072754) {
                                votes[1] += 1;
                            }

                            else {
                                if (x[1] <= 34.91578483581543) {
                                    votes[0] += 1;
                                }

                                else {
                                    votes[1] += 1;
                                }
                            }
                        }

                        else {
                            votes[0] += 1;
                        }

                        // tree #19
                        if (x[1] <= 37.37936019897461) {
                            if (x[0] <= 682.6343688964844) {
                                votes[1] += 1;
                            }

                            else {
                                votes[0] += 1;
                            }
                        }

                        else {
                            if (x[0] <= 684.3641357421875) {
                                votes[1] += 1;
                            }

                            else {
                                votes[0] += 1;
                            }
                        }

                        // tree #20
                        if (x[2] <= 66.3783187866211) {
                            if (x[2] <= 66.15283966064453) {
                                if (x[1] <= 26.26651096343994) {
                                    if (x[0] <= 684.6609191894531) {
                                        votes[1] += 1;
                                    }

                                    else {
                                        votes[0] += 1;
                                    }
                                }

                                else {
                                    if (x[1] <= 29.002137184143066) {
                                        if (x[2] <= 40.8112907409668) {
                                            if (x[1] <= 28.53382968902588) {
                                                votes[1] += 1;
                                            }

                                            else {
                                                if (x[2] <= 39.77560043334961) {
                                                    votes[1] += 1;
                                                }

                                                else {
                                                    votes[0] += 1;
                                                }
                                            }
                                        }

                                        else {
                                            if (x[1] <= 28.26150131225586) {
                                                if (x[1] <= 27.014153480529785) {
                                                    votes[1] += 1;
                                                }

                                                else {
                                                    votes[0] += 1;
                                                }
                                            }

                                            else {
                                                if (x[1] <= 28.581518173217773) {
                                                    votes[1] += 1;
                                                }

                                                else {
                                                    votes[1] += 1;
                                                }
                                            }
                                        }
                                    }

                                    else {
                                        if (x[1] <= 29.40114402770996) {
                                            if (x[2] <= 58.696882247924805) {
                                                if (x[1] <= 29.071242332458496) {
                                                    votes[0] += 1;
                                                }

                                                else {
                                                    votes[0] += 1;
                                                }
                                            }

                                            else {
                                                if (x[0] <= 702.657958984375) {
                                                    votes[1] += 1;
                                                }

                                                else {
                                                    votes[0] += 1;
                                                }
                                            }
                                        }

                                        else {
                                            if (x[2] <= 38.529367446899414) {
                                                votes[0] += 1;
                                            }

                                            else {
                                                if (x[2] <= 53.86831855773926) {
                                                    votes[0] += 1;
                                                }

                                                else {
                                                    votes[1] += 1;
                                                }
                                            }
                                        }
                                    }
                                }
                            }

                            else {
                                votes[0] += 1;
                            }
                        }

                        else {
                            if (x[1] <= 36.11640739440918) {
                                if (x[0] <= 683.3496704101562) {
                                    votes[1] += 1;
                                }

                                else {
                                    votes[0] += 1;
                                }
                            }

                            else {
                                if (x[1] <= 37.30950927734375) {
                                    if (x[1] <= 36.84599685668945) {
                                        if (x[1] <= 36.79161262512207) {
                                            if (x[0] <= 682.4326171875) {
                                                votes[1] += 1;
                                            }

                                            else {
                                                votes[0] += 1;
                                            }
                                        }

                                        else {
                                            votes[0] += 1;
                                        }
                                    }

                                    else {
                                        if (x[0] <= 688.1194458007812) {
                                            votes[1] += 1;
                                        }

                                        else {
                                            votes[0] += 1;
                                        }
                                    }
                                }

                                else {
                                    if (x[1] <= 38.26622009277344) {
                                        if (x[0] <= 701.5193481445312) {
                                            votes[1] += 1;
                                        }

                                        else {
                                            votes[0] += 1;
                                        }
                                    }

                                    else {
                                        if (x[0] <= 711.9234008789062) {
                                            votes[1] += 1;
                                        }

                                        else {
                                            votes[0] += 1;
                                        }
                                    }
                                }
                            }
                        }

                        // tree #21
                        if (x[1] <= 37.40279769897461) {
                            if (x[2] <= 81.12833404541016) {
                                if (x[2] <= 38.52534103393555) {
                                    if (x[0] <= 693.8365783691406) {
                                        votes[1] += 1;
                                    }

                                    else {
                                        votes[0] += 1;
                                    }
                                }

                                else {
                                    if (x[0] <= 681.6485595703125) {
                                        votes[1] += 1;
                                    }

                                    else {
                                        votes[0] += 1;
                                    }
                                }
                            }

                            else {
                                if (x[2] <= 81.26008224487305) {
                                    votes[0] += 1;
                                }

                                else {
                                    votes[1] += 1;
                                }
                            }
                        }

                        else {
                            if (x[2] <= 49.242563247680664) {
                                if (x[1] <= 38.77797508239746) {
                                    if (x[0] <= 660.36376953125) {
                                        votes[1] += 1;
                                    }

                                    else {
                                        votes[0] += 1;
                                    }
                                }

                                else {
                                    if (x[2] <= 45.21819496154785) {
                                        votes[1] += 1;
                                    }

                                    else {
                                        if (x[1] <= 38.96635437011719) {
                                            if (x[1] <= 38.87516212463379) {
                                                votes[1] += 1;
                                            }

                                            else {
                                                votes[0] += 1;
                                            }
                                        }

                                        else {
                                            votes[1] += 1;
                                        }
                                    }
                                }
                            }

                            else {
                                if (x[2] <= 74.61583709716797) {
                                    if (x[0] <= 681.5636901855469) {
                                        votes[1] += 1;
                                    }

                                    else {
                                        votes[0] += 1;
                                    }
                                }

                                else {
                                    if (x[0] <= 683.8140563964844) {
                                        votes[1] += 1;
                                    }

                                    else {
                                        votes[0] += 1;
                                    }
                                }
                            }
                        }

                        // tree #22
                        if (x[0] <= 682.3912658691406) {
                            votes[1] += 1;
                        }

                        else {
                            votes[0] += 1;
                        }

                        // tree #23
                        if (x[1] <= 29.071242332458496) {
                            if (x[2] <= 45.85513114929199) {
                                if (x[2] <= 44.784420013427734) {
                                    if (x[2] <= 44.530235290527344) {
                                        if (x[1] <= 18.05802059173584) {
                                            votes[0] += 1;
                                        }

                                        else {
                                            if (x[1] <= 28.289244651794434) {
                                                if (x[1] <= 27.75240135192871) {
                                                    votes[1] += 1;
                                                }

                                                else {
                                                    votes[0] += 1;
                                                }
                                            }

                                            else {
                                                if (x[0] <= 710.0553588867188) {
                                                    votes[1] += 1;
                                                }

                                                else {
                                                    votes[0] += 1;
                                                }
                                            }
                                        }
                                    }

                                    else {
                                        votes[0] += 1;
                                    }
                                }

                                else {
                                    if (x[2] <= 45.245399475097656) {
                                        votes[1] += 1;
                                    }

                                    else {
                                        if (x[1] <= 25.3887357711792) {
                                            if (x[2] <= 45.654258728027344) {
                                                votes[0] += 1;
                                            }

                                            else {
                                                if (x[2] <= 45.7460823059082) {
                                                    votes[1] += 1;
                                                }

                                                else {
                                                    votes[0] += 1;
                                                }
                                            }
                                        }

                                        else {
                                            votes[1] += 1;
                                        }
                                    }
                                }
                            }

                            else {
                                if (x[0] <= 682.0504455566406) {
                                    votes[1] += 1;
                                }

                                else {
                                    votes[0] += 1;
                                }
                            }
                        }

                        else {
                            if (x[2] <= 65.62073135375977) {
                                if (x[1] <= 29.403796195983887) {
                                    if (x[2] <= 59.540510177612305) {
                                        votes[0] += 1;
                                    }

                                    else {
                                        if (x[1] <= 29.279150009155273) {
                                            if (x[1] <= 29.196353912353516) {
                                                votes[0] += 1;
                                            }

                                            else {
                                                votes[1] += 1;
                                            }
                                        }

                                        else {
                                            votes[0] += 1;
                                        }
                                    }
                                }

                                else {
                                    if (x[0] <= 682.8885498046875) {
                                        if (x[2] <= 44.39048957824707) {
                                            if (x[1] <= 34.83335876464844) {
                                                votes[1] += 1;
                                            }

                                            else {
                                                if (x[1] <= 34.91188621520996) {
                                                    votes[0] += 1;
                                                }

                                                else {
                                                    votes[1] += 1;
                                                }
                                            }
                                        }

                                        else {
                                            votes[1] += 1;
                                        }
                                    }

                                    else {
                                        votes[0] += 1;
                                    }
                                }
                            }

                            else {
                                if (x[2] <= 79.29891204833984) {
                                    if (x[2] <= 78.41134262084961) {
                                        if (x[2] <= 78.17686462402344) {
                                            if (x[0] <= 683.229736328125) {
                                                votes[1] += 1;
                                            }

                                            else {
                                                votes[0] += 1;
                                            }
                                        }

                                        else {
                                            votes[1] += 1;
                                        }
                                    }

                                    else {
                                        if (x[0] <= 682.4058227539062) {
                                            votes[1] += 1;
                                        }

                                        else {
                                            votes[0] += 1;
                                        }
                                    }
                                }

                                else {
                                    if (x[2] <= 80.26963806152344) {
                                        if (x[1] <= 33.78573417663574) {
                                            if (x[2] <= 79.77926254272461) {
                                                if (x[0] <= 715.1490173339844) {
                                                    votes[1] += 1;
                                                }

                                                else {
                                                    votes[0] += 1;
                                                }
                                            }

                                            else {
                                                votes[1] += 1;
                                            }
                                        }

                                        else {
                                            votes[1] += 1;
                                        }
                                    }

                                    else {
                                        if (x[2] <= 80.48129653930664) {
                                            votes[0] += 1;
                                        }

                                        else {
                                            if (x[1] <= 34.77422904968262) {
                                                votes[1] += 1;
                                            }

                                            else {
                                                if (x[0] <= 543.54443359375) {
                                                    votes[1] += 1;
                                                }

                                                else {
                                                    votes[0] += 1;
                                                }
                                            }
                                        }
                                    }
                                }
                            }
                        }

                        // tree #24
                        if (x[1] <= 19.158023834228516) {
                            if (x[2] <= 55.6909122467041) {
                                if (x[2] <= 48.64682388305664) {
                                    if (x[0] <= 671.4493713378906) {
                                        votes[1] += 1;
                                    }

                                    else {
                                        votes[0] += 1;
                                    }
                                }

                                else {
                                    if (x[2] <= 51.7856388092041) {
                                        votes[1] += 1;
                                    }

                                    else {
                                        if (x[0] <= 698.4788513183594) {
                                            votes[1] += 1;
                                        }

                                        else {
                                            votes[0] += 1;
                                        }
                                    }
                                }
                            }

                            else {
                                if (x[2] <= 64.66524124145508) {
                                    if (x[2] <= 62.54548454284668) {
                                        if (x[1] <= 18.34422206878662) {
                                            if (x[2] <= 57.21309471130371) {
                                                votes[0] += 1;
                                            }

                                            else {
                                                votes[1] += 1;
                                            }
                                        }

                                        else {
                                            if (x[1] <= 19.06807518005371) {
                                                votes[0] += 1;
                                            }

                                            else {
                                                if (x[0] <= 804.9862365722656) {
                                                    votes[1] += 1;
                                                }

                                                else {
                                                    votes[0] += 1;
                                                }
                                            }
                                        }
                                    }

                                    else {
                                        votes[0] += 1;
                                    }
                                }

                                else {
                                    if (x[2] <= 76.091796875) {
                                        if (x[0] <= 691.6436462402344) {
                                            votes[1] += 1;
                                        }

                                        else {
                                            votes[0] += 1;
                                        }
                                    }

                                    else {
                                        if (x[2] <= 80.71803665161133) {
                                            votes[0] += 1;
                                        }

                                        else {
                                            if (x[0] <= 619.0359497070312) {
                                                votes[1] += 1;
                                            }

                                            else {
                                                votes[0] += 1;
                                            }
                                        }
                                    }
                                }
                            }
                        }

                        else {
                            if (x[0] <= 682.3155517578125) {
                                votes[1] += 1;
                            }

                            else {
                                votes[0] += 1;
                            }
                        }

                        // tree #25
                        if (x[1] <= 21.983495712280273) {
                            if (x[2] <= 52.09625053405762) {
                                if (x[0] <= 685.062255859375) {
                                    votes[1] += 1;
                                }

                                else {
                                    votes[0] += 1;
                                }
                            }

                            else {
                                if (x[0] <= 684.1899719238281) {
                                    votes[1] += 1;
                                }

                                else {
                                    votes[0] += 1;
                                }
                            }
                        }

                        else {
                            if (x[0] <= 681.5479125976562) {
                                if (x[1] <= 34.88931083679199) {
                                    votes[1] += 1;
                                }

                                else {
                                    if (x[2] <= 44.48785591125488) {
                                        if (x[0] <= 490.955810546875) {
                                            if (x[2] <= 43.85032844543457) {
                                                votes[1] += 1;
                                            }

                                            else {
                                                votes[0] += 1;
                                            }
                                        }

                                        else {
                                            votes[1] += 1;
                                        }
                                    }

                                    else {
                                        votes[1] += 1;
                                    }
                                }
                            }

                            else {
                                votes[0] += 1;
                            }
                        }

                        // tree #26
                        if (x[0] <= 682.3912658691406) {
                            if (x[1] <= 34.88493728637695) {
                                votes[1] += 1;
                            }

                            else {
                                if (x[2] <= 44.53267860412598) {
                                    if (x[0] <= 468.5548553466797) {
                                        if (x[0] <= 414.5016784667969) {
                                            votes[1] += 1;
                                        }

                                        else {
                                            votes[0] += 1;
                                        }
                                    }

                                    else {
                                        votes[1] += 1;
                                    }
                                }

                                else {
                                    votes[1] += 1;
                                }
                            }
                        }

                        else {
                            votes[0] += 1;
                        }

                        // tree #27
                        if (x[2] <= 45.24108123779297) {
                            if (x[1] <= 18.058218955993652) {
                                votes[0] += 1;
                            }

                            else {
                                if (x[2] <= 43.97938537597656) {
                                    if (x[0] <= 681.5852661132812) {
                                        votes[1] += 1;
                                    }

                                    else {
                                        votes[0] += 1;
                                    }
                                }

                                else {
                                    if (x[0] <= 684.9859313964844) {
                                        if (x[0] <= 463.0899963378906) {
                                            if (x[2] <= 44.41454315185547) {
                                                votes[0] += 1;
                                            }

                                            else {
                                                votes[1] += 1;
                                            }
                                        }

                                        else {
                                            votes[1] += 1;
                                        }
                                    }

                                    else {
                                        votes[0] += 1;
                                    }
                                }
                            }
                        }

                        else {
                            if (x[1] <= 22.443012237548828) {
                                if (x[2] <= 79.56344223022461) {
                                    if (x[1] <= 21.633522987365723) {
                                        if (x[0] <= 684.6609191894531) {
                                            votes[1] += 1;
                                        }

                                        else {
                                            votes[0] += 1;
                                        }
                                    }

                                    else {
                                        if (x[2] <= 75.3433952331543) {
                                            if (x[2] <= 56.422555923461914) {
                                                if (x[2] <= 46.71037292480469) {
                                                    votes[0] += 1;
                                                }

                                                else {
                                                    votes[0] += 1;
                                                }
                                            }

                                            else {
                                                if (x[0] <= 674.2726745605469) {
                                                    votes[1] += 1;
                                                }

                                                else {
                                                    votes[0] += 1;
                                                }
                                            }
                                        }

                                        else {
                                            if (x[1] <= 22.08188247680664) {
                                                if (x[2] <= 77.12226486206055) {
                                                    votes[0] += 1;
                                                }

                                                else {
                                                    votes[1] += 1;
                                                }
                                            }

                                            else {
                                                votes[1] += 1;
                                            }
                                        }
                                    }
                                }

                                else {
                                    if (x[1] <= 18.21531391143799) {
                                        votes[1] += 1;
                                    }

                                    else {
                                        votes[0] += 1;
                                    }
                                }
                            }

                            else {
                                if (x[2] <= 56.01141166687012) {
                                    if (x[2] <= 46.20479965209961) {
                                        if (x[1] <= 33.514299392700195) {
                                            if (x[1] <= 25.957138061523438) {
                                                votes[0] += 1;
                                            }

                                            else {
                                                if (x[0] <= 657.8776245117188) {
                                                    votes[1] += 1;
                                                }

                                                else {
                                                    votes[0] += 1;
                                                }
                                            }
                                        }

                                        else {
                                            if (x[2] <= 45.71742820739746) {
                                                if (x[2] <= 45.677860260009766) {
                                                    votes[0] += 1;
                                                }

                                                else {
                                                    votes[1] += 1;
                                                }
                                            }

                                            else {
                                                votes[0] += 1;
                                            }
                                        }
                                    }

                                    else {
                                        if (x[0] <= 683.9287109375) {
                                            votes[1] += 1;
                                        }

                                        else {
                                            votes[0] += 1;
                                        }
                                    }
                                }

                                else {
                                    if (x[2] <= 57.62982940673828) {
                                        if (x[2] <= 56.24432373046875) {
                                            votes[1] += 1;
                                        }

                                        else {
                                            if (x[1] <= 38.24551582336426) {
                                                if (x[1] <= 31.119518280029297) {
                                                    votes[1] += 1;
                                                }

                                                else {
                                                    votes[1] += 1;
                                                }
                                            }

                                            else {
                                                votes[0] += 1;
                                            }
                                        }
                                    }

                                    else {
                                        if (x[0] <= 682.3912658691406) {
                                            votes[1] += 1;
                                        }

                                        else {
                                            votes[0] += 1;
                                        }
                                    }
                                }
                            }
                        }

                        // tree #28
                        if (x[1] <= 38.84697914123535) {
                            if (x[1] <= 38.77797508239746) {
                                if (x[0] <= 681.8073425292969) {
                                    votes[1] += 1;
                                }

                                else {
                                    votes[0] += 1;
                                }
                            }

                            else {
                                votes[1] += 1;
                            }
                        }

                        else {
                            if (x[1] <= 38.98320770263672) {
                                votes[0] += 1;
                            }

                            else {
                                votes[1] += 1;
                            }
                        }

                        // tree #29
                        if (x[0] <= 681.8073425292969) {
                            if (x[2] <= 44.373186111450195) {
                                if (x[2] <= 44.348419189453125) {
                                    votes[1] += 1;
                                }

                                else {
                                    votes[0] += 1;
                                }
                            }

                            else {
                                votes[1] += 1;
                            }
                        }

                        else {
                            votes[0] += 1;
                        }

                        // tree #30
                        if (x[1] <= 19.642009735107422) {
                            if (x[1] <= 19.550138473510742) {
                                if (x[1] <= 18.00550937652588) {
                                    votes[1] += 1;
                                }

                                else {
                                    if (x[1] <= 18.71837615966797) {
                                        if (x[2] <= 52.271493911743164) {
                                            if (x[1] <= 18.403334617614746) {
                                                if (x[0] <= 722.3803100585938) {
                                                    votes[1] += 1;
                                                }

                                                else {
                                                    votes[0] += 1;
                                                }
                                            }

                                            else {
                                                if (x[1] <= 18.659820556640625) {
                                                    votes[0] += 1;
                                                }

                                                else {
                                                    votes[0] += 1;
                                                }
                                            }
                                        }

                                        else {
                                            if (x[1] <= 18.467007637023926) {
                                                if (x[0] <= 642.7704772949219) {
                                                    votes[1] += 1;
                                                }

                                                else {
                                                    votes[0] += 1;
                                                }
                                            }

                                            else {
                                                if (x[0] <= 699.6035766601562) {
                                                    votes[1] += 1;
                                                }

                                                else {
                                                    votes[0] += 1;
                                                }
                                            }
                                        }
                                    }

                                    else {
                                        if (x[2] <= 58.345314025878906) {
                                            if (x[0] <= 564.9560241699219) {
                                                votes[1] += 1;
                                            }

                                            else {
                                                votes[0] += 1;
                                            }
                                        }

                                        else {
                                            if (x[1] <= 19.280057907104492) {
                                                if (x[1] <= 19.215002059936523) {
                                                    votes[1] += 1;
                                                }

                                                else {
                                                    votes[0] += 1;
                                                }
                                            }

                                            else {
                                                if (x[0] <= 710.4541015625) {
                                                    votes[1] += 1;
                                                }

                                                else {
                                                    votes[0] += 1;
                                                }
                                            }
                                        }
                                    }
                                }
                            }

                            else {
                                if (x[1] <= 19.576180458068848) {
                                    if (x[0] <= 646.1972045898438) {
                                        votes[1] += 1;
                                    }

                                    else {
                                        votes[0] += 1;
                                    }
                                }

                                else {
                                    votes[0] += 1;
                                }
                            }
                        }

                        else {
                            if (x[2] <= 80.87892150878906) {
                                if (x[0] <= 682.3155517578125) {
                                    if (x[1] <= 34.89121437072754) {
                                        votes[1] += 1;
                                    }

                                    else {
                                        if (x[2] <= 44.48785591125488) {
                                            if (x[0] <= 490.955810546875) {
                                                if (x[0] <= 433.3684387207031) {
                                                    votes[1] += 1;
                                                }

                                                else {
                                                    votes[0] += 1;
                                                }
                                            }

                                            else {
                                                votes[1] += 1;
                                            }
                                        }

                                        else {
                                            votes[1] += 1;
                                        }
                                    }
                                }

                                else {
                                    votes[0] += 1;
                                }
                            }

                            else {
                                if (x[2] <= 81.2431640625) {
                                    if (x[0] <= 660.0310974121094) {
                                        votes[1] += 1;
                                    }

                                    else {
                                        votes[0] += 1;
                                    }
                                }

                                else {
                                    votes[1] += 1;
                                }
                            }
                        }

                        // tree #31
                        if (x[1] <= 38.74091148376465) {
                            if (x[0] <= 682.0504455566406) {
                                if (x[2] <= 44.373186111450195) {
                                    if (x[1] <= 34.69242858886719) {
                                        votes[1] += 1;
                                    }

                                    else {
                                        if (x[0] <= 479.26597595214844) {
                                            if (x[0] <= 433.3684387207031) {
                                                votes[1] += 1;
                                            }

                                            else {
                                                votes[0] += 1;
                                            }
                                        }

                                        else {
                                            votes[1] += 1;
                                        }
                                    }
                                }

                                else {
                                    votes[1] += 1;
                                }
                            }

                            else {
                                votes[0] += 1;
                            }
                        }

                        else {
                            if (x[1] <= 38.98771667480469) {
                                if (x[1] <= 38.76155662536621) {
                                    votes[0] += 1;
                                }

                                else {
                                    if (x[0] <= 676.7207336425781) {
                                        votes[1] += 1;
                                    }

                                    else {
                                        votes[0] += 1;
                                    }
                                }
                            }

                            else {
                                votes[1] += 1;
                            }
                        }

                        // tree #32
                        if (x[2] <= 66.59783172607422) {
                            if (x[1] <= 31.09712028503418) {
                                if (x[2] <= 42.26988410949707) {
                                    if (x[2] <= 41.69198036193848) {
                                        if (x[1] <= 29.091829299926758) {
                                            if (x[2] <= 41.59975242614746) {
                                                if (x[2] <= 39.439510345458984) {
                                                    votes[1] += 1;
                                                }

                                                else {
                                                    votes[1] += 1;
                                                }
                                            }

                                            else {
                                                votes[0] += 1;
                                            }
                                        }

                                        else {
                                            if (x[1] <= 29.705201148986816) {
                                                votes[0] += 1;
                                            }

                                            else {
                                                if (x[2] <= 39.47852897644043) {
                                                    votes[0] += 1;
                                                }

                                                else {
                                                    votes[1] += 1;
                                                }
                                            }
                                        }
                                    }

                                    else {
                                        if (x[2] <= 41.99850654602051) {
                                            votes[1] += 1;
                                        }

                                        else {
                                            if (x[0] <= 694.603271484375) {
                                                votes[1] += 1;
                                            }

                                            else {
                                                votes[0] += 1;
                                            }
                                        }
                                    }
                                }

                                else {
                                    if (x[1] <= 30.393747329711914) {
                                        if (x[2] <= 43.3422737121582) {
                                            if (x[1] <= 29.771079063415527) {
                                                if (x[2] <= 43.275943756103516) {
                                                    votes[0] += 1;
                                                }

                                                else {
                                                    votes[0] += 1;
                                                }
                                            }

                                            else {
                                                votes[0] += 1;
                                            }
                                        }

                                        else {
                                            if (x[2] <= 45.219125747680664) {
                                                if (x[2] <= 43.94923782348633) {
                                                    votes[0] += 1;
                                                }

                                                else {
                                                    votes[1] += 1;
                                                }
                                            }

                                            else {
                                                if (x[2] <= 46.36174201965332) {
                                                    votes[0] += 1;
                                                }

                                                else {
                                                    votes[1] += 1;
                                                }
                                            }
                                        }
                                    }

                                    else {
                                        if (x[2] <= 50.49909782409668) {
                                            if (x[0] <= 670.4742736816406) {
                                                votes[1] += 1;
                                            }

                                            else {
                                                votes[0] += 1;
                                            }
                                        }

                                        else {
                                            if (x[2] <= 59.647804260253906) {
                                                if (x[2] <= 58.038578033447266) {
                                                    votes[1] += 1;
                                                }

                                                else {
                                                    votes[0] += 1;
                                                }
                                            }

                                            else {
                                                votes[1] += 1;
                                            }
                                        }
                                    }
                                }
                            }

                            else {
                                if (x[0] <= 680.6635131835938) {
                                    if (x[2] <= 44.39048957824707) {
                                        if (x[0] <= 466.5817108154297) {
                                            if (x[0] <= 442.36204528808594) {
                                                votes[1] += 1;
                                            }

                                            else {
                                                votes[0] += 1;
                                            }
                                        }

                                        else {
                                            votes[1] += 1;
                                        }
                                    }

                                    else {
                                        votes[1] += 1;
                                    }
                                }

                                else {
                                    votes[0] += 1;
                                }
                            }
                        }

                        else {
                            if (x[0] <= 681.9638366699219) {
                                votes[1] += 1;
                            }

                            else {
                                votes[0] += 1;
                            }
                        }

                        // tree #33
                        if (x[0] <= 681.8073425292969) {
                            if (x[2] <= 44.3887996673584) {
                                if (x[2] <= 44.348419189453125) {
                                    votes[1] += 1;
                                }

                                else {
                                    votes[0] += 1;
                                }
                            }

                            else {
                                votes[1] += 1;
                            }
                        }

                        else {
                            votes[0] += 1;
                        }

                        // tree #34
                        if (x[0] <= 681.6485595703125) {
                            if (x[1] <= 34.89121437072754) {
                                votes[1] += 1;
                            }

                            else {
                                if (x[0] <= 462.7545928955078) {
                                    if (x[2] <= 44.567495346069336) {
                                        if (x[1] <= 36.28056335449219) {
                                            votes[0] += 1;
                                        }

                                        else {
                                            votes[1] += 1;
                                        }
                                    }

                                    else {
                                        votes[1] += 1;
                                    }
                                }

                                else {
                                    votes[1] += 1;
                                }
                            }
                        }

                        else {
